-30.120333
-0.160765
-22.198809
1.110931
-27.384407
0.659449
3.094710
-15.116980
-1.392984
-0.321730
-0.457392
-46.014592
0.160498
30.270458
0.375276
-2.215879
-7.174996
-3.931769
0.270470
74.770718
-0.246017
9.308017
-2.364153
-2.539391
-31.314199
-1.768001
-3.366623
-10.018713
0.439195
-1.906704
-14.541606
2.135895
-0.027324
-64.164969
-43.235649
11.745190
-1.355523
-2.837896
27.246594
0.379658
-22.308383
-1.363073
-1.438278
-3.506457
-0.502023
-14.256337
11.577966
-0.139658
-0.485593
-1.626241
-30.149430
0.480683
-3.411632
-0.901825
-0.234135
-2.406457
-2.356327
-1.696558
-0.342567
-17.428543
-25.788802
-5.506717
-4.982875
-10.550415
-0.213329
-5.248930
-14.087211
-0.077552
-1.633588
-24.555435
-2.061509
-1.091866
-4.316547
-4.379150
-0.045358
-3.672610
-5.976833
-4.746017
-0.656418
-25.915111
-4.635636
-5.601228
8.842295
-2.645009
0.082475
-5.817870
-4.160875
-0.064535
0.536205
7.117617
-22.507517
-0.212965
-4.632876
-4.112793
0.362151
-4.995036
-7.205006
-0.479602
-0.578664
-6.224266
4.602136
-7.875983
-3.445095
-4.920633
0.421289
-6.948577
-4.837300
0.078894
3.412943
7.313808
-22.735162
1.969424
1.865742
-3.872966
0.196789
-1.034145
-7.570501
-6.627957
0.343911
6.259818
-2.632183
-0.698305
-1.237000
-1.705643
-0.533282
-4.748770
4.157527
0.009030
-0.608837
-9.116195
-11.790747
-0.321910
-3.024038
-0.972762
-0.030052
-1.196351
-4.063978
-1.631365
-0.056883
-5.411843
17.280717
-10.828944
-6.285468
-3.857695
-0.689282
-0.696745
-7.458811
-0.758919
-3.719498
0.962829
12.160901
-0.626123
-4.720743
-3.112808
-0.544233
-1.002858
0.253091
0.798656
-0.148768
-1.716577
11.068831
-1.152664
3.857119
1.424867
-4.336083
25.479546
-13.978750
-4.958335
7.192553
-67.354084
-7.643486
0.836056
26.043448
3.297543
-4.609002
1.685289
48.384629
-10.935267
-3.693267
-17.594378
-3.328440
17.372164
16.881089
3.864679
1.026462
-13.591377
24.880520
26.747851
17.767132
-32.925010
7.001492
6.391088
-0.257322
