-0.390264
-0.183142
-0.118205
-0.524526
-0.583351
0.325608
0.008529
0.631466
0.706898
-0.658434
0.155049
-0.028218
0.024308
-0.152942
-0.316478
-0.345982
0.615849
-0.692438
0.289242
-0.623212
0.109741
-0.243266
0.498202
0.293445
-0.020914
-0.050186
-0.273719
-0.654471
-0.017101
-0.081823
-0.564449
0.299741
0.442142
0.024453
0.482322
0.565898
-0.357046
-0.216256
0.490257
-0.357254
-0.052995
-0.019543
0.101710
0.178299
0.155699
-0.221976
-0.154717
0.126841
-0.217337
0.160356
0.153371
0.040973
-0.140178
0.087309
-0.089839
0.076815
-0.152168
0.047211
0.093460
0.066031
-0.202271
0.138572
-0.062789
0.161153
-0.077302
-0.133873
0.116499
0.033397
0.021348
0.047925
0.144030
0.191960
-0.195224
0.022133
0.146652
0.184081
0.023764
0.215542
0.087315
0.030034
0.152291
0.017079
-0.152600
-0.211494
-0.119218
-0.018832
0.088928
-0.047779
-0.195228
-0.041219
-0.205355
-0.173892
-0.126253
-0.044537
0.210868
0.020052
0.045197
0.103760
-0.170158
-0.157062
-0.071921
0.197479
-0.188708
-0.043539
-0.003994
0.181551
-0.083064
-0.203837
0.173486
-0.219355
0.049804
0.102171
0.021331
0.120810
0.114284
0.125720
-0.121628
-0.020395
-0.145666
-0.093250
0.161993
-0.127414
-0.043535
-0.187867
0.051655
-0.056274
0.055791
-0.126754
-0.176121
0.109240
-0.060209
-0.024435
0.083113
-0.025311
0.155633
-0.144488
-0.067367
-0.151038
-0.124718
-0.117487
-0.146786
0.148693
0.208290
0.098151
0.045896
0.098967
0.000264
0.147875
-0.145035
0.078205
-0.168982
-0.206649
0.174397
0.011090
-0.170910
0.002446
0.178422
0.108488
0.099298
-0.221305
0.378570
-4.099458
0.457074
-0.299676
-0.511247
-4.000909
-5.404958
-5.422903
-5.119530
-4.650185
-4.136755
-5.945881
-0.064132
0.014467
0.028155
-0.026212
-0.066081
-0.058296
0.064195
-0.011668
-5.404958
-5.422903
-5.119530
-4.650185
-4.136755
-5.945881
5.535372
5.773191
10.356869
-11.779984
-15.558100
4.211008
-0.169054
