-0.637801
0.257296
-0.569834
-0.168995
0.488018
0.432557
-0.649850
-0.084798
0.352171
-0.186972
-0.075857
0.082270
-0.136269
0.158033
0.552985
0.467984
-0.117169
-0.355939
0.287606
-0.050653
-0.689505
-0.555939
0.022231
-0.331533
-0.013838
0.521706
-0.464113
0.585607
-0.502545
-0.339799
0.084913
-0.433239
0.624604
0.222186
0.104872
0.405515
-0.052364
0.162129
-0.386390
-0.407300
0.215751
0.077432
0.120823
-0.050948
-0.096201
0.072086
-0.126565
0.090354
0.183135
0.187991
-0.149271
0.188701
-0.211419
0.081366
-0.139746
0.007812
0.022737
-0.062904
-0.030610
0.087426
0.053249
0.219849
0.174030
0.027159
0.066504
-0.016413
-0.068213
-0.173662
-0.188750
0.033207
-0.078855
-0.196606
-0.112968
-0.181638
-0.023947
0.014438
0.114054
0.073094
-0.118815
0.073582
0.037478
-0.044479
0.038676
0.049666
-0.186720
0.122537
-0.166129
0.059624
-0.163974
0.026868
-0.076557
0.112882
0.023110
-0.126134
-0.083566
-0.133994
0.081060
0.071828
-0.084049
0.115916
-0.118572
0.060703
0.142917
-0.007933
0.102671
-0.104637
-0.217102
-0.006881
0.192064
-0.112310
-0.156906
0.005935
0.066818
0.105377
-0.168006
0.103705
0.004308
-0.110529
-0.060278
0.063941
0.139946
0.086772
-0.046784
-0.060552
0.184245
0.093257
0.029061
0.041699
-0.058522
0.168619
-0.065992
0.046514
0.005715
-0.146682
-0.185026
-0.115221
-0.027712
-0.178521
0.101505
-0.059256
-0.067224
0.168206
0.170286
0.223200
0.049976
-0.221327
0.103298
-0.169322
-0.108249
-0.180586
0.118226
-0.191910
0.129793
-0.152165
-0.028854
0.090432
0.164699
-0.223400
-0.091477
-0.117429
-3.484745
-3.852341
-0.586749
0.578473
-0.256535
0.186946
0.130854
-0.545199
0.190297
-0.239951
0.831428
-0.109399
1.365448
0.391278
0.580435
0.113667
-0.631260
2.585385
0.420954
-3.258074
-4.743599
-4.588500
-4.783521
-4.748465
-4.595881
-6.398354
-8.409445
-7.463826
-7.336449
-7.879650
-8.757436
2.001813
-0.063800
